{"parameters/conv.4.bias":{"values":[1,0,0,0,1,1,0,0,1,1,0,0,0,0,0,2,1,1,1,3,2,5,1,0,1,2,2,1,2,4,2,1,4,4,2,5,2,2,0,0,1,0,1,1,0,0,0,0,0,1,0,1,0,1,0,0,1,1,0,0,0,0,0,1],"bins":[-4.970948430127464e-05,-4.802014882443473e-05,-4.633081334759481e-05,-4.46414778707549e-05,-4.295214239391498e-05,-4.126280691707507e-05,-3.9573467802256346e-05,-3.788413596339524e-05,-3.6194796848576516e-05,-3.45054613717366e-05,-3.2816125894896686e-05,-3.112679041805677e-05,-2.9437454941216856e-05,-2.774811946437694e-05,-2.6058782168547623e-05,-2.4369446691707708e-05,-2.2680113033857197e-05,-2.099077755701728e-05,-1.9301442080177367e-05,-1.7612106603337452e-05,-1.5922771126497537e-05,-1.423343474016292e-05,-1.2544098353828304e-05,-1.0854762876988389e-05,-9.165427400148474e-06,-7.476091923308559e-06,-5.786755991721293e-06,-4.097420060134027e-06,-2.4080845832941122e-06,-7.187491064541973e-07,9.705872798804194e-07,2.6599227567203343e-06,4.349261871539056e-06,6.038597348378971e-06,7.727932825218886e-06,9.417269211553503e-06,1.1106604688393418e-05,1.2795940165233333e-05,1.448527655156795e-05,1.6174612028407864e-05,1.786394750524778e-05,1.9553282982087694e-05,2.124261845892761e-05,2.2931955754756927e-05,2.4621291231596842e-05,2.6310626708436757e-05,2.7999962185276672e-05,2.9689297662116587e-05,3.13786331389565e-05,3.306796861579642e-05,3.475730409263633e-05,3.644663956947625e-05,3.813597504631616e-05,3.982531052315608e-05,4.15146496379748e-05,4.3203981476835907e-05,4.489332059165463e-05,4.6582656068494543e-05,4.827199154533446e-05,4.996132702217437e-05,5.165066249901429e-05,5.33399979758542e-05,5.502933345269412e-05,5.671867256751284e-05,5.840800440637395e-05],"_type":"histogram"},"gradients/conv.5.bias":{"_type":"histogram","values":[1,0,0,0,0,1,0,0,0,1,2,1,0,0,1,5,6,6,7,4,5,3,8,0,5,0,3,1,1,0,0,0,0,0,0,1,0,0,0,0,1,0,0,0,0,0,0,0,0,0,0,0,0,0,0,0,0,0,0,0,0,0,0,1],"bins":[-0.029920315369963646,-0.028418362140655518,-0.02691641077399254,-0.02541445754468441,-0.02391250617802143,-0.022410552948713303,-0.020908601582050323,-0.019406648352742195,-0.017904695123434067,-0.01640274189412594,-0.01490079052746296,-0.013398837298154831,-0.011896885931491852,-0.010394932702183723,-0.00889298040419817,-0.007391028106212616,-0.005889076739549637,-0.004387124441564083,-0.0028851719107478857,-0.0013832193799316883,0.00011873291805386543,0.0016206852160394192,0.0031226379796862602,0.004624590277671814,0.006126542575657368,0.0076284948736429214,0.009130447171628475,0.010632399469614029,0.012134352698922157,0.013636304065585136,0.015138257294893265,0.016640208661556244,0.018142160028219223,0.01964411325752735,0.02114606462419033,0.02264801785349846,0.024149969220161438,0.025651922449469566,0.027153875678777695,0.028655827045440674,0.030157778412103653,0.03165972977876663,0.03316168487071991,0.03466363623738289,0.03616558760404587,0.03766753897070885,0.039169494062662125,0.040671445429325104,0.04217340052127838,0.04367535188794136,0.04517730697989464,0.04667925834655762,0.048181209713220596,0.049683161079883575,0.05118511617183685,0.05268706753849983,0.05418901890516281,0.05569097027182579,0.05719292536377907,0.05869487673044205,0.060196828097105026,0.061698779463768005,0.06320073455572128,0.06470268964767456,0.06620463728904724]},"gradients/conv.1.bias":{"bins":[-0.056548044085502625,-0.05446001514792442,-0.05237198621034622,-0.05028395354747772,-0.04819592460989952,-0.04610789567232132,-0.04401986300945282,-0.04193183407187462,-0.03984380513429642,-0.037755776196718216,-0.035667747259140015,-0.033579714596271515,-0.031491685658693314,-0.029403656721115112,-0.027315625920891762,-0.02522759512066841,-0.02313956618309021,-0.02105153724551201,-0.018963506445288658,-0.016875475645065308,-0.014787446707487106,-0.01269941683858633,-0.010611386969685555,-0.008523357100784779,-0.006435327231884003,-0.004347297362983227,-0.002259267494082451,-0.00017123762518167496,0.001916792243719101,0.004004822112619877,0.006092851981520653,0.008180881850421429,0.010268904268741608,0.012356934137642384,0.01444496400654316,0.01653299480676651,0.01862102374434471,0.020709052681922913,0.022797083482146263,0.024885114282369614,0.026973143219947815,0.029061172157526016,0.031149202957749367,0.03323723375797272,0.03532526269555092,0.03741329163312912,0.03950132429599762,0.04158935323357582,0.04367738217115402,0.045765411108732224,0.047853440046310425,0.049941472709178925,0.052029501646757126,0.05411753058433533,0.05620556324720383,0.05829359218478203,0.06038162112236023,0.06246965005993843,0.06455767899751663,0.06664571166038513,0.06873373687267303,0.07082176953554153,0.07290980219841003,0.07499782741069794,0.07708586007356644],"_type":"histogram","values":[1,0,1,2,0,0,1,0,0,2,1,0,1,0,2,0,1,1,0,2,0,0,0,1,2,2,0,0,1,1,1,1,0,0,1,0,0,1,2,0,2,0,1,0,0,0,0,0,0,0,0,0,0,0,0,0,0,0,0,0,0,0,0,1]},"estimated_total_FLOPs":375138304,"gradients/fc_out.bias":{"bins":[-0.0681840032339096,-0.06517203897237778,-0.062160078436136246,-0.059148114174604416,-0.056136149913072586,-0.053124189376831055,-0.050112225115299225,-0.047100260853767395,-0.044088296592235565,-0.041076332330703735,-0.038064371794462204,-0.035052407532930374,-0.032040443271398544,-0.029028480872511864,-0.026016518473625183,-0.023004554212093353,-0.019992593675851822,-0.01698063127696514,-0.013968667015433311,-0.01095670461654663,-0.007944741286337376,-0.00493277795612812,-0.0019208155572414398,0.00109114870429039,0.004103111103177071,0.007115074433386326,0.010127037763595581,0.013139000162482262,0.016150962561368942,0.019162926822900772,0.022174889221787453,0.025186853483319283,0.028198815882205963,0.031210778281092644,0.034222740679979324,0.037234704941511154,0.040246669203042984,0.043258629739284515,0.046270594000816345,0.049282558262348175,0.052294522523880005,0.055306486785411835,0.058318447321653366,0.061330411583185196,0.06434237211942673,0.06735433638095856,0.07036630064249039,0.07337826490402222,0.07639022171497345,0.07940218597650528,0.08241415023803711,0.08542610704898834,0.08843807131052017,0.091450035572052,0.09446199983358383,0.09747396409511566,0.10048592835664749,0.10349789261817932,0.10650985687971115,0.10952182114124298,0.11253377795219421,0.11554574221372604,0.11855770647525787,0.1215696707367897,0.12458163499832153],"_type":"histogram","values":[1,0,0,1,0,0,1,0,0,0,0,0,0,0,0,0,0,1,0,0,0,0,0,2,0,1,0,0,1,0,0,0,0,0,0,1,0,0,0,0,0,0,0,0,0,0,0,0,0,0,0,0,0,0,0,0,0,0,0,0,0,0,0,1]},"parameters/conv.13.bias":{"bins":[-0.05489019677042961,-0.05436623841524124,-0.05384228006005287,-0.0533183217048645,-0.05279436334967613,-0.05227040499448776,-0.05174644663929939,-0.05122248828411102,-0.05069852992892265,-0.05017457157373428,-0.049650613218545914,-0.049126654863357544,-0.048602696508169174,-0.048078738152980804,-0.047554779797792435,-0.047030821442604065,-0.046506863087415695,-0.045982904732227325,-0.045458946377038956,-0.044934988021850586,-0.044411029666662216,-0.043887071311473846,-0.04336311295628548,-0.04283915460109711,-0.04231519624590874,-0.04179123789072037,-0.041267279535532,-0.04074332118034363,-0.04021936282515526,-0.03969540446996689,-0.03917144611477852,-0.03864748775959015,-0.03812352567911148,-0.03759956732392311,-0.03707560896873474,-0.03655165061354637,-0.036027692258358,-0.03550373390316963,-0.03497977554798126,-0.03445581719279289,-0.03393185883760452,-0.03340790048241615,-0.03288394212722778,-0.03235998377203941,-0.031836025416851044,-0.031312067061662674,-0.030788108706474304,-0.030264150351285934,-0.029740191996097565,-0.029216233640909195,-0.028692275285720825,-0.028168316930532455,-0.027644358575344086,-0.027120400220155716,-0.026596441864967346,-0.026072483509778976,-0.025548525154590607,-0.025024566799402237,-0.024500608444213867,-0.023976650089025497,-0.023452691733837128,-0.022928733378648758,-0.022404775023460388,-0.02188081666827202,-0.02135685831308365],"_type":"histogram","values":[1,0,0,0,1,0,1,0,0,1,0,0,0,1,1,1,0,0,1,3,1,1,3,0,2,6,3,3,3,5,4,5,10,2,1,3,6,2,5,4,2,2,8,3,3,4,1,1,5,3,3,3,2,1,2,2,0,1,0,1,0,0,0,1]},"parameters/conv.1.bias":{"bins":[-0.018956083804368973,-0.018138760700821877,-0.01732143759727478,-0.016504114493727684,-0.015686791390180588,-0.014869468286633492,-0.01405214611440897,-0.013234823010861874,-0.012417499907314777,-0.011600176803767681,-0.010782853700220585,-0.009965531527996063,-0.009148208424448967,-0.00833088532090187,-0.0075135622173547745,-0.006696239113807678,-0.005878916010260582,-0.005061592906713486,-0.0042442698031663895,-0.0034269471652805805,-0.0026096240617334843,-0.001792300958186388,-0.0009749783203005791,-0.00015765521675348282,0.0006596678867936134,0.0014769908739253879,0.0022943138610571623,0.003111636731773615,0.003928959835320711,0.004746282938867807,0.005563605576753616,0.006380928680300713,0.007198251783847809,0.008015574887394905,0.008832897990942001,0.009650221094489098,0.010467544198036194,0.01128486730158329,0.012102189473807812,0.012919512577354908,0.013736835680902004,0.0145541587844491,0.015371481887996197,0.01618880406022072,0.017006127163767815,0.01782345026731491,0.018640773370862007,0.019458096474409103,0.0202754195779562,0.021092742681503296,0.021910065785050392,0.02272738888859749,0.023544711992144585,0.02436203509569168,0.025179356336593628,0.025996681302785873,0.02681400254368782,0.027631325647234917,0.028448648750782013,0.02926597185432911,0.030083294957876205,0.0309006180614233,0.0317179411649704,0.032535262405872345,0.03335258737206459],"_type":"histogram","values":[1,0,1,1,1,1,1,2,3,1,1,0,0,0,1,2,1,0,2,1,1,1,0,2,0,1,0,1,0,0,0,0,0,0,0,1,0,0,0,0,2,0,1,0,0,0,0,0,0,0,0,0,0,0,0,0,0,0,0,0,0,0,0,2]},"gradients/conv.17.weight":{"_type":"histogram","values":[1,3,2,3,1,2,1,3,1,1,9,6,6,4,5,7,4,4,6,7,13,7,11,7,4,12,5,13,6,9,8,8,11,6,8,5,5,7,3,3,3,4,1,0,2,4,2,1,0,0,2,2,0,0,3,1,0,0,1,1,0,0,1,1],"bins":[-0.01094777137041092,-0.010536379180848598,-0.010124986991286278,-0.009713595733046532,-0.009302203543484211,-0.00889081135392189,-0.00847941916435957,-0.008068026974797249,-0.007656635716557503,-0.007245243526995182,-0.006833851803094149,-0.006422459613531828,-0.0060110678896307945,-0.005599675700068474,-0.005188283510506153,-0.00477689178660512,-0.004365499597042799,-0.003954107407480478,-0.003542715683579445,-0.003131323494017124,-0.0027199317701160908,-0.00230853958055377,-0.001897147623822093,-0.001485755667090416,-0.001074363710358739,-0.0006629717536270618,-0.0002515797386877239,0.0001598122762516141,0.0005712042329832911,0.00098259630613029,0.001393988262861967,0.0018053802195936441,0.002216772176325321,0.0026281641330569983,0.0030395560897886753,0.003450948279350996,0.0038623400032520294,0.00427373219281435,0.004685124382376671,0.005096516106277704,0.005507907830178738,0.005919300019741058,0.006330691743642092,0.0067420839332044125,0.007153475657105446,0.007564867846667767,0.007976260036230087,0.008387651294469833,0.008799044415354729,0.00921043660491705,0.00962182879447937,0.010033220052719116,0.010444612242281437,0.010856004431843758,0.011267396621406078,0.011678788810968399,0.012090180069208145,0.012501572258770466,0.012912964448332787,0.013324355706572533,0.013735747896134853,0.014147140085697174,0.014558532275259495,0.014969924464821815,0.015381315723061562]},"val_acc":0.389,"gradients/conv.9.bias":{"bins":[-0.0177156999707222,-0.017075862735509872,-0.016436023637652397,-0.01579618640244007,-0.01515634823590517,-0.01451651006937027,-0.013876671902835369,-0.013236833736300468,-0.012596996501088142,-0.011957158334553242,-0.011317320168018341,-0.010677482932806015,-0.010037644766271114,-0.009397806599736214,-0.008757968433201313,-0.008118130266666412,-0.007478292100131512,-0.006838453933596611,-0.006198616232722998,-0.005558778066188097,-0.004918940365314484,-0.004279102198779583,-0.0036392640322446823,-0.002999426331371069,-0.0023595881648361683,-0.0017197502311319113,-0.0010799121810123324,-0.0004400741308927536,0.0001997638028115034,0.0008396017365157604,0.001479439903050661,0.0021192776039242744,0.002759115770459175,0.003398953704163432,0.004038791637867689,0.00467862980440259,0.005318467505276203,0.005958305671811104,0.0065981438383460045,0.007237981539219618,0.007877819240093231,0.008517657406628132,0.009157495573163033,0.009797332808375359,0.01043717097491026,0.01107700914144516,0.01171684730798006,0.012356685474514961,0.012996523641049862,0.013636361807584763,0.014276199974119663,0.014916038140654564,0.01555587537586689,0.016195714473724365,0.01683555170893669,0.017475388944149017,0.018115228042006493,0.01875506527721882,0.019394904375076294,0.02003474161028862,0.020674580708146095,0.02131441794335842,0.021954257041215897,0.022594094276428223,0.02323393151164055],"_type":"histogram","values":[1,0,0,0,0,0,1,0,0,2,0,0,3,3,2,3,3,2,3,3,5,2,6,5,6,5,7,8,7,1,3,3,5,2,4,1,1,5,3,0,4,4,4,0,1,4,1,1,1,0,0,1,0,1,0,0,0,0,0,0,0,0,0,1]},"gradients/conv.9.weight":{"bins":[-0.023062027990818024,-0.02227780409157276,-0.02149357832968235,-0.020709354430437088,-0.019925130531191826,-0.019140906631946564,-0.018356680870056152,-0.01757245697081089,-0.016788233071565628,-0.016004009172320366,-0.01521978434175253,-0.014435559511184692,-0.01365133561193943,-0.012867110781371593,-0.012082885950803757,-0.011298662051558495,-0.010514436289668083,-0.009730211459100246,-0.008945987559854984,-0.008161762729287148,-0.007377538364380598,-0.006593313999474049,-0.005809089168906212,-0.005024864803999662,-0.004240640439093113,-0.0034564160741865635,-0.0026721914764493704,-0.0018879668787121773,-0.0011037425138056278,-0.00031951814889907837,0.0004647066816687584,0.0012489310465753078,0.002033153548836708,0.0028173779137432575,0.0036016025114804506,0.004385827109217644,0.005170051474124193,0.005954275839030743,0.006738500669598579,0.007522725034505129,0.008306949399411678,0.009091174229979515,0.009875398129224777,0.010659622959792614,0.01144384779036045,0.012228071689605713,0.01301229652017355,0.013796521350741386,0.014580745249986649,0.015364970080554485,0.016149194911122322,0.016933418810367584,0.017717642709612846,0.01850186660885811,0.01928609237074852,0.020070316269993782,0.020854540169239044,0.021638764068484306,0.022422989830374718,0.02320721372961998,0.023991437628865242,0.024775661528110504,0.025559887290000916,0.026344111189246178,0.02712833695113659],"_type":"histogram","values":[1,1,0,0,0,0,1,0,0,2,2,1,1,0,1,2,1,3,3,4,6,4,2,6,5,4,3,6,7,3,0,6,3,2,6,5,3,4,1,7,5,3,2,2,1,2,1,2,2,0,1,0,0,0,0,0,0,0,0,0,0,0,0,1]},"train_acc":0.5788223527940992,"parameters/conv.4.weight":{"bins":[-0.054023418575525284,-0.05233108624815941,-0.050638750195503235,-0.04894641786813736,-0.047254085540771484,-0.04556174948811531,-0.043869417160749435,-0.04217708110809326,-0.040484748780727386,-0.03879241645336151,-0.03710008040070534,-0.03540774807333946,-0.03371541202068329,-0.03202307969331741,-0.030330747365951538,-0.028638413175940514,-0.02694607898592949,-0.025253744795918465,-0.02356141060590744,-0.021869078278541565,-0.02017674408853054,-0.018484409898519516,-0.01679207757115364,-0.015099743381142616,-0.013407409191131592,-0.011715075001120567,-0.010022741742432117,-0.008330408483743668,-0.006638074293732643,-0.004945740103721619,-0.003253406845033169,-0.001561073586344719,0.00013125687837600708,0.0018235906027257442,0.0035159243270754814,0.005208258051425219,0.006900591775774956,0.00859292596578598,0.01028525922447443,0.01197759248316288,0.013669926673173904,0.015362260863184929,0.017054595053195953,0.01874692738056183,0.020439261570572853,0.022131595760583878,0.023823928087949753,0.025516262277960777,0.027208596467971802,0.028900930657982826,0.03059326484799385,0.032285597175359726,0.0339779332280159,0.035670265555381775,0.03736259788274765,0.039054930210113525,0.0407472662627697,0.042439598590135574,0.04413193464279175,0.04582426697015762,0.0475165992975235,0.04920893535017967,0.05090126767754555,0.05259360373020172,0.054285936057567596],"_type":"histogram","values":[2,3,2,12,22,29,85,160,247,423,642,732,907,1032,1088,1221,1174,1207,1202,1186,1216,1144,1232,1205,1231,1233,1210,1213,1232,1176,1250,1210,1214,1216,1218,1165,1218,1181,1227,1242,1236,1218,1212,1213,1213,1206,1170,1177,1159,1045,997,818,648,483,331,202,118,70,39,22,6,4,3,1]},"parameters/conv.16.bias":{"_type":"histogram","values":[1,0,0,0,0,0,0,0,0,0,0,0,1,0,1,0,0,1,0,1,1,5,4,2,5,3,8,8,8,8,8,11,12,17,12,14,13,17,15,9,8,5,9,12,8,5,6,4,3,1,2,0,3,2,1,0,0,0,1,0,0,0,0,1],"bins":[-1.0738897799456026e-05,-1.0439091056468897e-05,-1.0139284313481767e-05,-9.839477570494637e-06,-9.539671737002209e-06,-9.239864994015079e-06,-8.94005825102795e-06,-8.64025150804082e-06,-8.34044476505369e-06,-8.04063802206656e-06,-7.74083127907943e-06,-7.441024990839651e-06,-7.141218247852521e-06,-6.841411504865391e-06,-6.541605216625612e-06,-6.241798473638482e-06,-5.9419917306513526e-06,-5.642184987664223e-06,-5.342378244677093e-06,-5.042571956437314e-06,-4.742765213450184e-06,-4.442958470463054e-06,-4.143152182223275e-06,-3.8433454392361455e-06,-3.5435386962490156e-06,-3.243731953261886e-06,-2.9439254376484314e-06,-2.644118922034977e-06,-2.344312179047847e-06,-2.0445054360607173e-06,-1.744698920447263e-06,-1.4448924048338085e-06,-1.1450856618466787e-06,-8.452790325463866e-07,-5.454724032460945e-07,-2.4566577394580236e-07,5.414085535448976e-08,3.539474846547819e-07,6.53754113955074e-07,9.535606295685284e-07,1.2533673725556582e-06,1.5531740018559503e-06,1.8529806311562425e-06,2.152787146769697e-06,2.4525938897568267e-06,2.7524006327439565e-06,3.052207148357411e-06,3.3520136639708653e-06,3.651820406957995e-06,3.951627149945125e-06,4.251433892932255e-06,4.551240181172034e-06,4.851046924159164e-06,5.1508536671462934e-06,5.450659955386072e-06,5.750466698373202e-06,6.050273441360332e-06,6.350080184347462e-06,6.649886927334592e-06,6.949693215574371e-06,7.2494999585615005e-06,7.54930670154863e-06,7.84911298978841e-06,8.14891973277554e-06,8.448726475762669e-06]},"gradients/conv.8.weight":{"_type":"histogram","values":[2,0,0,1,1,1,1,2,9,6,15,19,28,37,45,59,74,107,149,230,278,427,557,837,1035,1379,1806,2436,3184,4076,5128,6495,7880,9641,11398,12970,14229,15272,15569,15207,14146,12509,10764,8792,6990,5602,4070,3141,2391,1741,1273,874,622,434,291,200,128,82,56,45,26,18,9,6],"bins":[-0.048415154218673706,-0.04715445637702942,-0.04589375853538513,-0.044633060693740845,-0.04337236285209656,-0.04211166501045227,-0.04085096716880798,-0.039590269327163696,-0.03832957148551941,-0.03706887364387512,-0.035808175802230835,-0.03454747796058655,-0.03328678011894226,-0.032026082277297974,-0.030765384435653687,-0.0295046865940094,-0.02824399061501026,-0.026983292773365974,-0.025722594931721687,-0.0244618970900774,-0.023201199248433113,-0.021940501406788826,-0.020679805427789688,-0.0194191075861454,-0.018158409744501114,-0.016897711902856827,-0.01563701406121254,-0.014376316219568253,-0.013115618377923965,-0.011854920536279678,-0.010594223625957966,-0.009333525784313679,-0.008072827011346817,-0.00681212916970253,-0.005551431328058243,-0.004290733952075243,-0.003030036110430956,-0.0017693382687866688,-0.000508640892803669,0.0007520569488406181,0.0020127547904849052,0.0032734526321291924,0.0045341504737734795,0.005794847849756479,0.007055545691400766,0.008316243067383766,0.009576940909028053,0.01083763875067234,0.012098336592316628,0.013359034433960915,0.014619732275605202,0.01588043011724949,0.017141127958893776,0.018401825800538063,0.0196625217795372,0.020923219621181488,0.022183917462825775,0.023444615304470062,0.02470531314611435,0.025966010987758636,0.027226708829402924,0.02848740667104721,0.029748104512691498,0.031008802354335785,0.03226950019598007]},"gradients/conv.4.weight":{"_type":"histogram","values":[1,0,1,3,3,2,5,1,3,12,6,20,22,20,14,21,25,36,36,52,60,57,69,89,89,102,155,193,249,381,612,872,1122,1559,2020,2472,3011,3484,4430,5459,5750,4251,3367,2699,2064,1556,1223,913,646,436,356,242,215,204,164,110,79,53,39,25,18,12,6,4],"bins":[-0.15776820480823517,-0.15379150211811066,-0.14981481432914734,-0.14583811163902283,-0.14186140894889832,-0.1378847062587738,-0.13390801846981049,-0.12993131577968597,-0.12595462799072266,-0.12197793275117874,-0.11800123006105423,-0.11402453482151031,-0.1100478321313858,-0.10607113689184189,-0.10209444165229797,-0.09811773896217346,-0.09414103627204895,-0.09016434103250504,-0.08618763834238052,-0.08221094310283661,-0.0782342404127121,-0.07425754517316818,-0.07028084993362427,-0.06630414724349976,-0.06232745200395584,-0.05835075303912163,-0.054374054074287415,-0.0503973588347435,-0.046420659869909286,-0.04244396090507507,-0.03846726566553116,-0.034490566700696945,-0.030513852834701538,-0.026537153869867325,-0.02256045676767826,-0.018583759665489197,-0.014607060700654984,-0.01063036173582077,-0.006653664633631706,-0.002676967531442642,0.001299731433391571,0.00527642946690321,0.009253127500414848,0.013229825533926487,0.017206523567438126,0.02118322253227234,0.025159919634461403,0.029136616736650467,0.03311331570148468,0.03709001466631889,0.04106671363115311,0.04504340887069702,0.049020107835531235,0.05299680680036545,0.05697350203990936,0.060950201004743576,0.06492689996957779,0.0689035952091217,0.07288029789924622,0.07685699313879013,0.08083368837833405,0.08481039106845856,0.08878708630800247,0.09276378154754639,0.0967404842376709]},"gradients/conv.17.bias":{"values":[1,1,0,0,0,1,1,1,0,3,2,0,2,5,7,2,5,4,4,5,4,8,2,7,12,7,11,8,3,14,10,13,8,8,7,2,6,12,9,7,9,6,1,9,5,1,2,2,2,1,2,2,1,1,1,3,1,1,1,1,0,0,0,2],"bins":[-0.011344771832227707,-0.010978365316987038,-0.010611958801746368,-0.0102455522865057,-0.00987914577126503,-0.00951273925602436,-0.009146332740783691,-0.008779926225543022,-0.008413519710302353,-0.008047113195061684,-0.007680706679821014,-0.007314300164580345,-0.006947893649339676,-0.006581487134099007,-0.006215080618858337,-0.005848674103617668,-0.005482267588376999,-0.00511586107313633,-0.00474945455789566,-0.004383048042654991,-0.004016641527414322,-0.0036502350121736526,-0.0032838284969329834,-0.002917421981692314,-0.002551015466451645,-0.0021846089512109756,-0.0018182024359703064,-0.0014517959207296371,-0.001085389405488968,-0.0007189828902482986,-0.0003525763750076294,1.3830140233039856e-05,0.0003802366554737091,0.0007466431707143784,0.0011130496859550476,0.0014794562011957169,0.001845862716436386,0.0022122692316770554,0.0025786757469177246,0.002945082262158394,0.003311488777399063,0.0036778952926397324,0.004044301807880402,0.004410708323121071,0.00477711483836174,0.005143521353602409,0.005509927868843079,0.005876334384083748,0.006242740899324417,0.006609147414565086,0.006975553929805756,0.007341960445046425,0.007708366960287094,0.008074773475527763,0.008441179990768433,0.008807586506009102,0.009173993021249771,0.00954039953649044,0.00990680605173111,0.010273212566971779,0.010639619082212448,0.011006025597453117,0.011372432112693787,0.011738838627934456,0.012105245143175125],"_type":"histogram"},"_timestamp":1.7448138271452491e+09,"gradients/conv.8.bias":{"values":[1,0,0,0,0,0,0,0,1,0,0,0,2,0,1,0,4,0,1,0,6,1,0,1,7,2,5,0,10,5,3,1,18,1,3,1,8,0,3,1,11,0,6,1,5,1,3,0,5,0,0,0,4,0,1,0,3,0,0,0,0,1,0,1],"bins":[-7.450580596923828e-09,-7.2177499532699585e-09,-6.984919309616089e-09,-6.752088665962219e-09,-6.51925802230835e-09,-6.28642737865448e-09,-6.05359673500061e-09,-5.820766091346741e-09,-5.587935447692871e-09,-5.3551048040390015e-09,-5.122274160385132e-09,-4.889443516731262e-09,-4.6566128730773926e-09,-4.423782229423523e-09,-4.190951585769653e-09,-3.958120942115784e-09,-3.725290298461914e-09,-3.4924596548080444e-09,-3.259629011154175e-09,-3.026798367500305e-09,-2.7939677238464355e-09,-2.561137080192566e-09,-2.3283064365386963e-09,-2.0954757928848267e-09,-1.862645149230957e-09,-1.6298145055770874e-09,-1.3969838619232178e-09,-1.1641532182693481e-09,-9.313225746154785e-10,-6.984919309616089e-10,-4.656612873077393e-10,-2.3283064365386963e-10,0,2.3283064365386963e-10,4.656612873077393e-10,6.984919309616089e-10,9.313225746154785e-10,1.1641532182693481e-09,1.3969838619232178e-09,1.6298145055770874e-09,1.862645149230957e-09,2.0954757928848267e-09,2.3283064365386963e-09,2.561137080192566e-09,2.7939677238464355e-09,3.026798367500305e-09,3.259629011154175e-09,3.4924596548080444e-09,3.725290298461914e-09,3.958120942115784e-09,4.190951585769653e-09,4.423782229423523e-09,4.6566128730773926e-09,4.889443516731262e-09,5.122274160385132e-09,5.3551048040390015e-09,5.587935447692871e-09,5.820766091346741e-09,6.05359673500061e-09,6.28642737865448e-09,6.51925802230835e-09,6.752088665962219e-09,6.984919309616089e-09,7.2177499532699585e-09,7.450580596923828e-09],"_type":"histogram"},"parameters/conv.17.weight":{"_type":"histogram","values":[1,0,0,0,0,0,2,1,1,1,3,0,3,4,1,4,5,8,5,15,6,11,9,13,7,10,7,12,13,8,13,6,9,9,5,3,7,6,5,4,4,4,1,1,4,6,1,3,4,2,3,1,1,0,1,1,0,0,0,1,0,0,0,1],"bins":[0.9726822376251221,0.9735437035560608,0.9744051694869995,0.9752665758132935,0.9761280417442322,0.9769895076751709,0.9778509736061096,0.9787124395370483,0.9795738458633423,0.980435311794281,0.9812967777252197,0.9821581840515137,0.9830196499824524,0.9838811159133911,0.9847425818443298,0.9856040477752686,0.9864655137062073,0.987326979637146,0.9881884455680847,0.9890498518943787,0.9899113178253174,0.9907727837562561,0.9916342496871948,0.9924957156181335,0.9933571815490723,0.994218647480011,0.9950801134109497,0.9959415197372437,0.9968029856681824,0.9976644515991211,0.9985259175300598,0.9993873834609985,1.0002487897872925,1.0011101961135864,1.00197172164917,1.0028331279754639,1.0036946535110474,1.0045560598373413,1.0054174661636353,1.0062789916992188,1.0071403980255127,1.0080018043518066,1.0088633298873901,1.009724736213684,1.0105862617492676,1.0114476680755615,1.0123090744018555,1.013170599937439,1.0140321254730225,1.0148935317993164,1.0157550573349,1.0166164636611938,1.0174779891967773,1.0183393955230713,1.0192008018493652,1.0200623273849487,1.0209237337112427,1.0217851400375366,1.0226466655731201,1.023508071899414,1.0243695974349976,1.0252310037612915,1.0260924100875854,1.026953935623169,1.027815341949463]},"parameters/conv.0.bias":{"_type":"histogram","values":[1,0,0,0,0,0,0,0,0,0,0,0,0,0,0,0,0,0,0,0,0,1,1,1,0,0,0,1,0,0,0,0,0,0,0,2,0,17,2,0,0,0,0,1,1,0,0,1,0,0,1,0,0,1,0,0,0,0,0,0,0,0,0,1],"bins":[-0.021979333832859993,-0.021392634138464928,-0.020805932581424713,-0.020219232887029648,-0.019632533192634583,-0.019045831635594368,-0.018459131941199303,-0.017872430384159088,-0.017285730689764023,-0.016699030995368958,-0.016112329438328743,-0.015525629743933678,-0.014938929118216038,-0.014352228492498398,-0.013765528798103333,-0.013178828172385693,-0.012592128477990627,-0.012005427852272987,-0.011418728157877922,-0.010832027532160282,-0.010245326906442642,-0.009658627212047577,-0.009071926586329937,-0.008485225960612297,-0.007898526266217232,-0.007311826106160879,-0.006725125480443239,-0.006138425320386887,-0.005551724694669247,-0.004965024534612894,-0.0043783243745565414,-0.0037916237488389015,-0.0032049231231212616,-0.0026182227302342653,-0.002031522337347269,-0.0014448221772909164,-0.0008581217844039202,-0.0002714213915169239,0.0003152787685394287,0.0009019793942570686,0.0014886795543134212,0.0020753799472004175,0.002662080340087414,0.0032487805001437664,0.0038354808930307627,0.004422181285917759,0.0050088814459741116,0.0055955820716917515,0.006182282231748104,0.006768982391804457,0.007355683017522097,0.00794238317757845,0.00852908380329609,0.009115783497691154,0.009702484123408794,0.010289184749126434,0.0108758844435215,0.01146258506923914,0.012049284763634205,0.012635985389351845,0.013222686015069485,0.013809386640787125,0.01439608633518219,0.01498278696089983,0.01556948758661747]},"parameters/fc1.weight":{"_type":"histogram","values":[5,15,19,34,46,81,158,248,427,703,1146,1733,2573,3924,5432,7931,11097,16659,27533,41210,51064,58755,64967,69787,74821,78772,83815,89248,96339,106501,119922,186945,102069,93133,87354,82239,79037,74377,70035,64783,58951,50739,39523,25946,17385,13594,10511,8145,5724,4197,2809,1780,1160,712,450,256,165,78,42,21,18,7,1,1],"bins":[-0.03682021051645279,-0.03564860299229622,-0.03447699546813965,-0.03330538421869278,-0.03213377669453621,-0.03096216917037964,-0.02979055978357792,-0.0286189503967762,-0.02744734287261963,-0.02627573534846306,-0.02510412596166134,-0.02393251657485962,-0.02276090905070305,-0.02158930152654648,-0.02041769213974476,-0.01924608275294304,-0.01807447522878647,-0.016902867704629898,-0.01573125831782818,-0.014559649862349033,-0.013388041406869888,-0.012216432951390743,-0.011044824495911598,-0.009873216040432453,-0.008701607584953308,-0.007529999129474163,-0.006358390673995018,-0.005186782218515873,-0.004015173763036728,-0.002843565307557583,-0.0016719568520784378,-0.0005003483965992928,0.0006712637841701508,0.0018428722396492958,0.003014480695128441,0.004186089150607586,0.005357697606086731,0.006529306061565876,0.007700914517045021,0.008872522972524166,0.010044131428003311,0.011215739883482456,0.012387348338961601,0.013558956794440746,0.014730565249919891,0.015902172774076462,0.01707378216087818,0.0182453915476799,0.01941699907183647,0.020588606595993042,0.02176021598279476,0.02293182536959648,0.024103432893753052,0.025275040417909622,0.026446649804711342,0.02761825919151306,0.028789866715669632,0.029961474239826202,0.031133083626627922,0.03230469301342964,0.03347630053758621,0.03464790806174278,0.03581951558589935,0.03699112683534622,0.03816273435950279]},"gradients/fc_out.weight":{"_type":"histogram","values":[2,1,1,3,0,2,2,0,3,2,2,4,2,4,7,4,11,5,14,13,18,22,28,29,43,52,55,75,103,114,130,3548,219,167,126,91,43,32,27,19,11,10,7,7,12,3,7,3,10,3,2,6,3,2,2,1,0,1,2,0,0,2,0,3],"bins":[-0.5370961427688599,-0.5198622345924377,-0.5026283264160156,-0.48539435863494873,-0.4681604504585266,-0.4509265422821045,-0.43369260430336,-0.4164586663246155,-0.39922475814819336,-0.38199084997177124,-0.36475691199302673,-0.3475229740142822,-0.3302890658378601,-0.313055157661438,-0.2958212196826935,-0.278587281703949,-0.26135337352752686,-0.24411945044994354,-0.22688552737236023,-0.20965160429477692,-0.1924176812171936,-0.1751837581396103,-0.15794983506202698,-0.14071591198444366,-0.12348198890686035,-0.10624806582927704,-0.08901414275169373,-0.07178021967411041,-0.0545462965965271,-0.03731237351894379,-0.020078450441360474,-0.0028445273637771606,0.014389336109161377,0.03162325918674469,0.048857182264328,0.06609110534191132,0.08332502841949463,0.10055895149707794,0.11779287457466125,0.13502679765224457,0.15226072072982788,0.1694946438074112,0.1867285668849945,0.20396248996257782,0.22119641304016113,0.23843033611774445,0.25566425919532776,0.27289819717407227,0.2901321053504944,0.3073660135269165,0.324599951505661,0.3418338894844055,0.35906779766082764,0.37630170583724976,0.39353564381599426,0.41076958179473877,0.4280034899711609,0.445237398147583,0.4624713361263275,0.479705274105072,0.49693918228149414,0.5141730904579163,0.5314069986343384,0.5486409664154053,0.5658748745918274]},"parameters/conv.17.bias":{"bins":[-0.0377672016620636,-0.037346575409173965,-0.03692594915628433,-0.036505326628685,-0.036084700375795364,-0.03566407412290573,-0.0352434478700161,-0.034822821617126465,-0.03440219908952713,-0.0339815728366375,-0.033560946583747864,-0.03314032405614853,-0.032719697803258896,-0.03229907155036926,-0.03187844529747963,-0.031457819044589996,-0.031037192791700363,-0.03061656653881073,-0.030195942148566246,-0.029775315895676613,-0.02935469150543213,-0.028934065252542496,-0.028513438999652863,-0.02809281460940838,-0.027672188356518745,-0.027251562103629112,-0.02683093771338463,-0.026410311460494995,-0.025989685207605362,-0.025569060817360878,-0.025148434564471245,-0.02472781017422676,-0.024307183921337128,-0.023886557668447495,-0.02346593327820301,-0.023045307025313377,-0.022624682635068893,-0.02220405638217926,-0.021783430129289627,-0.021362805739045143,-0.02094218134880066,-0.020521555095911026,-0.020100930705666542,-0.01968030445277691,-0.019259680062532425,-0.018839053809642792,-0.01841842755675316,-0.017997803166508675,-0.017577175050973892,-0.01715654879808426,-0.016735924407839775,-0.016315298154950142,-0.015894673764705658,-0.015474047511816025,-0.015053421258926392,-0.014632795937359333,-0.014212171547114849,-0.01379154622554779,-0.013370919972658157,-0.012950294651091099,-0.01252966932952404,-0.012109044007956982,-0.011688418686389923,-0.01126779243350029,-0.010847167111933231],"_type":"histogram","values":[1,0,0,0,0,0,0,0,1,1,1,5,0,3,1,0,3,2,5,3,3,2,2,5,0,3,5,4,7,3,4,7,5,7,10,8,8,9,11,10,10,4,14,7,1,9,12,8,8,8,6,5,2,4,4,4,3,1,3,1,2,0,0,1]},"parameters/conv.9.weight":{"bins":[0.9703313708305359,0.971011221408844,0.9716910719871521,0.9723709225654602,0.9730507731437683,0.9737306237220764,0.9744104743003845,0.9750903248786926,0.9757701754570007,0.9764500260353088,0.9771298766136169,0.977809727191925,0.9784895777702332,0.9791694283485413,0.9798492789268494,0.9805291295051575,0.9812089800834656,0.9818888306617737,0.9825686812400818,0.9832485318183899,0.983928382396698,0.9846082329750061,0.9852880835533142,0.9859679341316223,0.9866477847099304,0.9873276352882385,0.9880074858665466,0.9886873364448547,0.9893671870231628,0.990047037601471,0.990726888179779,0.9914067387580872,0.99208664894104,0.9927664995193481,0.9934463500976562,0.9941262006759644,0.9948060512542725,0.9954859018325806,0.9961657524108887,0.9968456029891968,0.9975254535675049,0.998205304145813,0.9988851547241211,0.9995650053024292,1.0002448558807373,1.0009247064590454,1.0016045570373535,1.0022844076156616,1.0029642581939697,1.0036441087722778,1.004323959350586,1.005003809928894,1.0056836605072021,1.0063635110855103,1.0070433616638184,1.0077232122421265,1.0084030628204346,1.0090829133987427,1.0097627639770508,1.0104426145553589,1.011122465133667,1.011802315711975,1.0124821662902832,1.0131620168685913,1.0138418674468994],"_type":"histogram","values":[1,0,0,0,0,1,0,0,2,0,2,1,2,2,2,2,1,1,1,1,2,3,6,9,2,8,3,2,4,10,5,2,3,4,0,3,3,1,3,2,2,2,4,2,1,4,2,3,0,0,0,2,1,1,0,1,0,1,2,1,4,0,0,1]},"parameters/conv.0.weight":{"values":[1,0,8,8,8,18,19,16,14,9,13,14,15,9,10,15,11,17,20,12,18,20,19,13,19,16,16,15,12,11,10,11,12,22,19,10,16,19,14,22,20,8,13,15,9,16,13,16,15,17,8,11,14,16,16,17,13,18,8,12,15,15,5,3],"bins":[-0.21070067584514618,-0.20424285531044006,-0.19778503477573395,-0.19132721424102783,-0.18486937880516052,-0.1784115731716156,-0.1719537377357483,-0.16549591720104218,-0.15903809666633606,-0.15258027613162994,-0.14612245559692383,-0.1396646350622177,-0.1332068145275116,-0.1267489790916443,-0.12029115855693817,-0.11383333802223206,-0.10737551748752594,-0.10091769695281982,-0.09445987641811371,-0.088002048432827,-0.08154422789812088,-0.07508640736341476,-0.06862857937812805,-0.062170758843421936,-0.05571293830871582,-0.049255117774009705,-0.04279729351401329,-0.036339469254016876,-0.02988164871931076,-0.023423828184604645,-0.01696600392460823,-0.010508179664611816,-0.0040503740310668945,0.0024074483662843704,0.008865270763635635,0.0153230931609869,0.021780915558338165,0.02823873609304428,0.034696560353040695,0.04115438461303711,0.047612205147743225,0.05407002568244934,0.060527849942445755,0.06698567420244217,0.07344349473714828,0.0799013152718544,0.08635914325714111,0.09281696379184723,0.09927478432655334,0.10573260486125946,0.11219042539596558,0.11864825338125229,0.1251060664653778,0.13156390190124512,0.13802172243595123,0.14447954297065735,0.15093736350536346,0.15739518404006958,0.1638530045747757,0.1703108251094818,0.17676866054534912,0.18322646617889404,0.18968430161476135,0.19614212214946747,0.20259994268417358],"_type":"histogram"},"train_loss":1.2033440305048384,"total_trainable_params":4769930,"_wandb":{"runtime":159},"gradients/fc1.weight":{"bins":[-0.026209883391857147,-0.02532602660357952,-0.024442169815301895,-0.02355831488966942,-0.022674458101391792,-0.021790601313114166,-0.02090674638748169,-0.020022889599204063,-0.019139032810926437,-0.01825517602264881,-0.017371319234371185,-0.01648746430873871,-0.015603607520461082,-0.014719750732183456,-0.013835894875228405,-0.012952039018273354,-0.012068182229995728,-0.011184325441718102,-0.01030046958476305,-0.009416613727807999,-0.008532756939530373,-0.007648900616914034,-0.006765044294297695,-0.005881187971681356,-0.004997331649065018,-0.004113475326448679,-0.0032296190038323402,-0.0023457626812160015,-0.0014619063585996628,-0.000578050035983324,0.0003058062866330147,0.0011896626092493534,0.002073518931865692,0.002957375254482031,0.0038412315770983696,0.004725087899714708,0.005608944222331047,0.006492800544947386,0.0073766568675637245,0.008260512724518776,0.009144369512796402,0.010028226301074028,0.01091208215802908,0.01179593801498413,0.012679794803261757,0.013563651591539383,0.014447507448494434,0.015331363305449486,0.016215220093727112,0.017099076882004738,0.017982933670282364,0.01886678859591484,0.019750645384192467,0.020634502172470093,0.02151835709810257,0.022402213886380196,0.02328607067465782,0.024169927462935448,0.025053784251213074,0.02593763917684555,0.026821495965123177,0.027705352753400803,0.02858920767903328,0.029473064467310905,0.03035692125558853],"_type":"histogram","values":[1,1,1,1,5,9,21,27,51,76,122,182,272,390,652,976,1481,2115,3406,4841,7220,10612,15207,21230,29727,39804,51745,65929,83316,1.439239e+06,77080,61024,46874,35676,26729,19612,14100,10528,7556,5543,3886,2819,2074,1453,1044,778,490,400,243,165,120,90,65,39,37,27,15,10,7,6,1,0,1,1]},"parameters/conv.12.weight":{"bins":[-0.04064458608627319,-0.03938760608434677,-0.03813062980771065,-0.036873653531074524,-0.0356166735291481,-0.03435969352722168,-0.033102717250585556,-0.03184574097394943,-0.03058876097202301,-0.029331782832741737,-0.028074804693460464,-0.02681782655417919,-0.02556084841489792,-0.024303870275616646,-0.023046892136335373,-0.0217899139970541,-0.020532935857772827,-0.019275957718491554,-0.01801897957921028,-0.01676200143992901,-0.015505023300647736,-0.014248045161366463,-0.01299106702208519,-0.011734088882803917,-0.010477110743522644,-0.009220132604241371,-0.007963154464960098,-0.006706176325678825,-0.0054491981863975525,-0.00419222004711628,-0.0029352419078350067,-0.0016782637685537338,-0.0004212893545627594,0.0008356887847185135,0.0020926669239997864,0.0033496450632810593,0.004606623202562332,0.005863601341843605,0.007120579481124878,0.00837755762040615,0.009634535759687424,0.010891513898968697,0.01214849203824997,0.013405470177531242,0.014662448316812515,0.015919426456093788,0.01717640459537506,0.018433382734656334,0.019690360873937607,0.02094733901321888,0.022204317152500153,0.023461295291781425,0.0247182734310627,0.02597525157034397,0.027232229709625244,0.028489207848906517,0.02974618598818779,0.031003164127469063,0.032260142266750336,0.03351712226867676,0.03477409854531288,0.036031074821949005,0.03728805482387543,0.03854503482580185,0.03980201110243797],"_type":"histogram","values":[1,0,0,1,1,4,4,11,17,43,114,222,389,719,1332,2213,3481,5201,7734,10672,14223,18229,22097,25705,29635,32263,34834,36131,37486,38461,38795,39228,39443,39158,38588,37764,36018,34837,32330,29146,25979,22228,18280,14619,11090,8156,5551,3815,2539,1642,948,594,344,210,121,79,45,19,12,3,3,4,3,2]},"parameters/conv.8.weight":{"values":[3,6,6,30,48,80,159,328,536,1042,1444,2135,2945,3802,4551,5140,5616,5942,5985,6087,6221,6373,6452,6272,6312,6401,6347,6267,6359,6339,6325,6215,6411,6352,6285,6311,6361,6227,6236,5997,5747,5438,4915,4342,3691,2879,2008,1443,928,604,350,239,122,64,38,17,10,12,2,1,0,0,1,1],"bins":[-0.045460160821676254,-0.04390357807278633,-0.04234699532389641,-0.040790412575006485,-0.03923382610082626,-0.03767724335193634,-0.03612066060304642,-0.034564077854156494,-0.03300749510526657,-0.03145091235637665,-0.029894329607486725,-0.028337744995951653,-0.02678116224706173,-0.025224579498171806,-0.023667994886636734,-0.02211141213774681,-0.020554829388856888,-0.018998246639966965,-0.01744166389107704,-0.01588507927954197,-0.014328496530652046,-0.012771913781762123,-0.011215330101549625,-0.009658746421337128,-0.008102163672447205,-0.006545580457895994,-0.004988997243344784,-0.0034324140287935734,-0.001875830814242363,-0.00031924759969115257,0.0012373356148600578,0.0027939192950725555,0.00435049831867218,0.005907081533223391,0.007463664747774601,0.009020248427987099,0.010576831176877022,0.012133413925766945,0.013689997605979443,0.01524658128619194,0.016803164035081863,0.018359746783971786,0.01991632953286171,0.021472914144396782,0.023029496893286705,0.024586079642176628,0.0261426642537117,0.027699247002601624,0.029255829751491547,0.03081241250038147,0.03236899524927139,0.033925577998161316,0.03548216074705124,0.03703874722123146,0.038595329970121384,0.04015191271901131,0.04170849546790123,0.04326507821679115,0.044821660965681076,0.046378243714571,0.04793483018875122,0.049491412937641144,0.05104799568653107,0.05260457843542099,0.05416116118431091],"_type":"histogram"},"parameters/fc_out.weight":{"values":[1,0,1,3,7,3,6,12,17,12,16,21,49,61,71,107,85,88,97,74,100,99,113,102,120,130,97,91,114,123,105,131,121,139,157,295,140,130,127,100,135,101,104,96,107,100,102,106,91,97,91,101,94,108,89,104,70,74,34,20,14,8,4,5],"bins":[-0.06629157811403275,-0.06441336125135422,-0.06253514438867569,-0.06065693125128746,-0.05877871438860893,-0.0569005012512207,-0.055022284388542175,-0.05314406752586365,-0.05126585066318512,-0.04938763380050659,-0.04750942066311836,-0.045631203800439835,-0.04375298693776131,-0.04187477380037308,-0.03999655693769455,-0.03811834007501602,-0.03624012693762779,-0.034361910074949265,-0.032483696937561035,-0.030605480074882507,-0.02872726321220398,-0.0268490482121706,-0.024970833212137222,-0.023092616349458694,-0.021214401349425316,-0.019336186349391937,-0.01745796948671341,-0.01557975448668003,-0.013701538555324078,-0.011823322623968124,-0.009945107623934746,-0.008066891692578793,-0.006188672035932541,-0.004310456104576588,-0.0024322406388819218,-0.0005540251731872559,0.0013241907581686974,0.0032024066895246506,0.005080621689558029,0.006958837620913982,0.008837053552269936,0.010715269483625889,0.012593485414981842,0.01447170041501522,0.0163499154150486,0.018228132277727127,0.020106347277760506,0.021984562277793884,0.023862779140472412,0.02574099414050579,0.02761921100318432,0.029497426003217697,0.031375642865896225,0.033253856003284454,0.03513207286596298,0.03701028972864151,0.03888850659132004,0.040766723453998566,0.042644936591386795,0.04452315345406532,0.04640137031674385,0.04827958345413208,0.05015780031681061,0.052036017179489136,0.053914230316877365],"_type":"histogram"},"parameters/conv.9.bias":{"_type":"histogram","values":[2,1,0,0,1,0,1,0,1,2,3,3,7,0,2,2,2,1,1,4,2,4,1,1,4,4,6,2,5,3,8,5,1,2,3,7,1,4,2,4,2,4,2,3,2,1,1,2,1,1,1,2,0,1,0,0,0,0,0,0,0,1,0,2],"bins":[-0.04072002321481705,-0.0401335135102272,-0.03954700380563736,-0.038960494101047516,-0.038373980671167374,-0.03778747096657753,-0.037200961261987686,-0.03661445155739784,-0.036027941852808,-0.035441432148218155,-0.03485492244362831,-0.03426841273903847,-0.033681899309158325,-0.03309538960456848,-0.03250887989997864,-0.031922370195388794,-0.03133586049079895,-0.030749350786209106,-0.030162839218974113,-0.02957632951438427,-0.028989819809794426,-0.028403308242559433,-0.02781679853796959,-0.027230288833379745,-0.026643775403499603,-0.02605726569890976,-0.025470754131674767,-0.024884244427084923,-0.02429773472249508,-0.023711223155260086,-0.023124713450670242,-0.0225382037460804,-0.021951692178845406,-0.021365182474255562,-0.02077867090702057,-0.020192161202430725,-0.01960565149784088,-0.019019141793251038,-0.018432630226016045,-0.0178461205214262,-0.017259610816836357,-0.016673101112246513,-0.01608658954501152,-0.015500079840421677,-0.014913570135831833,-0.014327059499919415,-0.013740548864006996,-0.013154039159417152,-0.01256752759218216,-0.011981016956269741,-0.011394507251679897,-0.010807996615767479,-0.010221486911177635,-0.009634976275265217,-0.009048465639352798,-0.008461955934762955,-0.007875446230173111,-0.00728893605992198,-0.006702425889670849,-0.0061159152537584305,-0.005529405083507299,-0.004942894913256168,-0.00435638427734375,-0.003769874107092619,-0.0031833634711802006]},"parameters/conv.5.bias":{"_type":"histogram","values":[2,0,0,0,0,0,0,0,1,1,1,0,0,0,2,2,2,1,2,2,1,3,3,0,2,4,2,5,1,2,1,3,4,1,1,2,1,2,3,3,0,1,0,0,1,0,0,0,0,0,0,0,0,0,0,0,1,0,0,0,0,0,0,1],"bins":[-0.033997394144535065,-0.03317321464419365,-0.03234903886914253,-0.03152485936880112,-0.0307006798684597,-0.029876502230763435,-0.02905232459306717,-0.028228145092725754,-0.027403967455029488,-0.02657978981733322,-0.025755610316991806,-0.02493143267929554,-0.024107253178954124,-0.02328307554125786,-0.022458896040916443,-0.021634718403220177,-0.02081054076552391,-0.019986363127827644,-0.01916218362748623,-0.018338005989789963,-0.017513826489448547,-0.01668964885175228,-0.015865471214056015,-0.0150412917137146,-0.014217112213373184,-0.013392933644354343,-0.012568755075335503,-0.011744577437639236,-0.010920398868620396,-0.010096220299601555,-0.009272041730582714,-0.008447863161563873,-0.007623685523867607,-0.006799506954848766,-0.005975328851491213,-0.005151150282472372,-0.004326972179114819,-0.003502793610095978,-0.002678615041077137,-0.0018544369377195835,-0.0010302583687007427,-0.00020607997430488467,0.0006180984200909734,0.0014422768726944923,0.0022664552088826895,0.0030906335450708866,0.003914812114089727,0.004738990217447281,0.005563168786466122,0.0063873473554849625,0.007211525458842516,0.008035704493522644,0.00885988213121891,0.009684060700237751,0.010508239269256592,0.011332416906952858,0.012156596407294273,0.012980774976313114,0.013804953545331955,0.014629131183028221,0.015453309752047062,0.016277488321065903,0.017101667821407318,0.017925845459103584,0.01875002309679985]},"gradients/conv.1.weight":{"_type":"histogram","values":[1,0,0,0,0,1,1,1,0,2,0,2,1,2,1,1,1,0,2,1,1,1,1,0,0,0,2,0,2,0,1,0,0,0,0,0,1,0,0,0,0,1,1,0,1,0,0,1,0,0,0,0,0,0,0,1,0,0,0,0,0,0,0,1],"bins":[-0.05503954738378525,-0.05267440527677536,-0.05030926316976547,-0.04794412478804588,-0.045578982681035995,-0.04321384057402611,-0.04084870219230652,-0.03848356008529663,-0.03611841797828674,-0.033753275871276855,-0.03138813376426697,-0.02902299538254738,-0.02665785327553749,-0.024292711168527603,-0.021927570924162865,-0.019562430679798126,-0.01719728857278824,-0.014832147397100925,-0.012467006221413612,-0.0101018650457263,-0.007736723870038986,-0.005371582694351673,-0.00300644151866436,-0.0006413012742996216,0.0017238408327102661,0.004088982008397579,0.006454123184084892,0.008819264359772205,0.011184405535459518,0.013549546711146832,0.015914687886834145,0.018279828131198883,0.02064497023820877,0.02301011234521866,0.025375252589583397,0.027740392833948135,0.030105534940958023,0.03247067704796791,0.0348358154296875,0.03720095753669739,0.039566099643707275,0.04193124175071716,0.04429638385772705,0.04666152223944664,0.04902666434645653,0.051391806453466415,0.053756944835186005,0.05612208694219589,0.05848722904920578,0.06085237115621567,0.06321751326322556,0.06558265537023544,0.06794779002666473,0.07031293213367462,0.07267807424068451,0.0750432163476944,0.07740835845470428,0.07977350056171417,0.08213864266872406,0.08450378477573395,0.08686892688274384,0.08923406153917313,0.09159920364618301,0.0939643457531929,0.09632948786020279]},"parameters/conv.16.weight":{"_type":"histogram","values":[4,4,16,21,57,95,203,352,662,1189,1856,3002,4786,6935,10360,14506,19567,25132,31257,37937,44005,49895,55578,59411,62821,65522,67172,68822,69347,70082,69928,70358,69442,68490,67666,64953,62609,58772,55235,49272,43088,37080,30265,24735,19007,14241,10152,7029,4703,3137,1909,1223,711,462,256,130,87,46,26,9,10,4,0,1],"bins":[-0.03379091992974281,-0.03268224373459816,-0.03157356381416321,-0.030464885756373405,-0.029356207698583603,-0.02824753150343895,-0.027138853445649147,-0.026030175387859344,-0.024921497330069542,-0.02381281927227974,-0.022704141214489937,-0.021595463156700134,-0.02048678696155548,-0.01937810704112053,-0.018269430845975876,-0.017160752788186073,-0.01605207473039627,-0.014943396672606468,-0.013834718614816666,-0.012726041488349438,-0.011617363430559635,-0.010508685372769833,-0.009400008246302605,-0.008291330188512802,-0.007182652130723,-0.006073974072933197,-0.004965296480804682,-0.003856618655845523,-0.002747940830886364,-0.0016392627730965614,-0.0005305851809680462,0.0005780924111604691,0.00168677419424057,0.002795452019199729,0.003904129844158888,0.005012807436287403,0.006121485494077206,0.007230163551867008,0.008338840678334236,0.009447518736124039,0.010556196793913841,0.011664874851703644,0.012773552909493446,0.013882230035960674,0.014990908093750477,0.016099587082862854,0.017208263278007507,0.01831694133579731,0.019425619393587112,0.020534297451376915,0.021642975509166718,0.02275165356695652,0.023860331624746323,0.024969007819890976,0.02607768587768078,0.02718636393547058,0.028295041993260384,0.029403720051050186,0.03051239810883999,0.03162107616662979,0.032729752361774445,0.033838432282209396,0.03494710847735405,0.036055788397789,0.037164464592933655]},"learning_rate":0.0001,"parameters/conv.12.bias":{"bins":[-1.7039375961758196e-05,-1.656504718994256e-05,-1.6090716599137522e-05,-1.5616387827321887e-05,-1.5142057236516848e-05,-1.4667728464701213e-05,-1.4193397873896174e-05,-1.3719069102080539e-05,-1.3244739420770202e-05,-1.2770409739459865e-05,-1.2296080058149528e-05,-1.182175037683919e-05,-1.1347420695528854e-05,-1.0873091014218517e-05,-1.0398762242402881e-05,-9.924432561092544e-06,-9.450102879782207e-06,-8.97577319847187e-06,-8.501443517161533e-06,-8.027113835851196e-06,-7.55278460928821e-06,-7.078454927977873e-06,-6.604125246667536e-06,-6.12979602010455e-06,-5.655465429299511e-06,-5.181135747989174e-06,-4.706806066678837e-06,-4.2324763853685e-06,-3.7581471588055138e-06,-3.2838174774951767e-06,-2.8094877961848397e-06,-2.335158342248178e-06,-1.8608288883115165e-06,-1.3864993206880172e-06,-9.12169696221099e-07,-4.378400717541808e-07,3.648949586931849e-08,5.108190634928178e-07,9.851487448031548e-07,1.4594781987398164e-06,1.9338078800501535e-06,2.4081375613604905e-06,2.882467015297152e-06,3.356796696607489e-06,3.831126377917826e-06,4.305456059228163e-06,4.7797857405385e-06,5.254114967101486e-06,5.7284446484118234e-06,6.2027743297221605e-06,6.6771040110324975e-06,7.151433237595484e-06,7.625762918905821e-06,8.100092600216158e-06,8.574422281526495e-06,9.048751962836832e-06,9.523081644147169e-06,9.997411325457506e-06,1.0471741006767843e-05,1.094607068807818e-05,1.1420400369388517e-05,1.1894730050698854e-05,1.236905882251449e-05,1.2843388503824826e-05,1.3317718185135163e-05],"_type":"histogram","values":[1,0,0,0,0,0,0,0,0,0,0,0,0,0,1,2,0,0,1,1,0,1,3,2,2,0,2,4,2,4,11,5,7,13,5,9,4,9,7,5,6,3,0,3,1,1,2,0,3,1,0,2,0,2,0,0,0,2,0,0,0,0,0,1]},"val_loss":1.8764885177612305,"gradients/conv.0.weight":{"values":[4,2,1,2,0,0,0,2,2,1,7,6,8,8,5,9,16,6,5,1,2,6,14,25,35,44,49,72,85,178,84,48,29,28,24,9,9,7,3,7,0,3,0,0,0,0,0,0,0,0,0,1,0,2,0,2,4,0,0,1,3,0,3,2],"bins":[-0.5348951816558838,-0.5167158246040344,-0.49853646755218506,-0.4803571403026581,-0.4621777832508087,-0.44399842619895935,-0.4258190989494324,-0.407639741897583,-0.38946038484573364,-0.3712810277938843,-0.3531016707420349,-0.33492234349250793,-0.31674298644065857,-0.2985636293888092,-0.2803843021392822,-0.26220494508743286,-0.2440255880355835,-0.22584623098373413,-0.20766688883304596,-0.1894875466823578,-0.17130818963050842,-0.15312883257865906,-0.1349494904279709,-0.11677014827728271,-0.09859079122543335,-0.08041144162416458,-0.06223209202289581,-0.044052742421627045,-0.025873392820358276,-0.007694043219089508,0.01048530638217926,0.02866464853286743,0.04684406518936157,0.06502341479063034,0.08320276439189911,0.10138211399316788,0.11956146359443665,0.137740820646286,0.15592016279697418,0.17409950494766235,0.19227886199951172,0.21045821905136108,0.22863756120204926,0.24681690335273743,0.2649962604045868,0.28317561745643616,0.30135494470596313,0.3195343017578125,0.33771365880966187,0.35589301586151123,0.3740723729133606,0.3922517001628876,0.41043105721473694,0.4286104142665863,0.4467897415161133,0.46496909856796265,0.483148455619812,0.5013278126716614,0.5195071697235107,0.5376865267753601,0.5558658838272095,0.5740451812744141,0.5922245383262634,0.6104038953781128,0.6285832524299622],"_type":"histogram"},"gradients/conv.16.bias":{"values":[1,0,1,0,1,0,0,0,1,0,0,0,4,0,0,1,3,0,3,0,6,2,6,0,12,4,4,0,19,2,9,0,3,18,2,11,5,26,3,15,2,22,6,5,1,19,2,4,0,8,2,5,0,4,1,2,1,4,2,0,3,0,0,1],"bins":[-2.0954757928848267e-09,-2.039087121374905e-09,-1.9826984498649836e-09,-1.926309778355062e-09,-1.8699211068451405e-09,-1.813532435335219e-09,-1.7571437638252974e-09,-1.7007550923153758e-09,-1.6443664208054543e-09,-1.5879777492955327e-09,-1.5315890777856112e-09,-1.4752004062756896e-09,-1.418811734765768e-09,-1.3624230632558465e-09,-1.306034391745925e-09,-1.2496457202360034e-09,-1.1932570487260818e-09,-1.1368683772161603e-09,-1.0804797057062387e-09,-1.0240910341963172e-09,-9.677023626863956e-10,-9.113136911764741e-10,-8.549250196665525e-10,-7.98536348156631e-10,-7.421476766467094e-10,-6.857590051367879e-10,-6.293703336268663e-10,-5.729816621169448e-10,-5.165929906070232e-10,-4.602043190971017e-10,-4.0381564758718014e-10,-3.474269760772586e-10,-2.9103830456733704e-10,-2.346496330574155e-10,-1.7826096154749393e-10,-1.2187229003757238e-10,-6.548361852765083e-11,-9.094947017729282e-12,4.729372449219227e-11,1.0368239600211382e-10,1.6007106751203537e-10,2.1645973902195692e-10,2.7284841053187847e-10,3.292370820418e-10,3.8562575355172157e-10,4.420144250616431e-10,4.984030965715647e-10,5.547917680814862e-10,6.111804395914078e-10,6.675691111013293e-10,7.239577826112509e-10,7.803464541211724e-10,8.36735125631094e-10,8.931237971410155e-10,9.49512468650937e-10,1.0059011401608586e-09,1.0622898116707802e-09,1.1186784831807017e-09,1.1750671546906233e-09,1.2314558262005448e-09,1.2878444977104664e-09,1.344233169220388e-09,1.4006218407303095e-09,1.457010512240231e-09,1.5133991837501526e-09],"_type":"histogram"},"parameters/conv.8.bias":{"values":[2,0,0,0,0,0,0,0,1,0,1,1,0,0,2,0,0,2,2,0,3,4,2,2,4,3,1,5,9,3,8,5,9,8,6,5,7,4,2,6,4,2,2,3,0,1,2,2,0,0,0,0,0,0,0,2,0,1,0,0,0,1,0,1],"bins":[-2.454269451845903e-05,-2.3766902813804336e-05,-2.299110929016024e-05,-2.2215317585505545e-05,-2.143952588085085e-05,-2.0663734176196158e-05,-1.988794065255206e-05,-1.9112148947897367e-05,-1.8336357243242674e-05,-1.756056553858798e-05,-1.6784772014943883e-05,-1.600898031028919e-05,-1.5233188605634496e-05,-1.44573959914851e-05,-1.3681603377335705e-05,-1.2905811672681011e-05,-1.2130019058531616e-05,-1.135422644438222e-05,-1.0578434739727527e-05,-9.802642125578132e-06,-9.026850420923438e-06,-8.251057806774043e-06,-7.475265647371998e-06,-6.6994734879699536e-06,-5.923681328567909e-06,-5.147889169165865e-06,-4.37209700976382e-06,-3.5963046229881e-06,-2.8205124635860557e-06,-2.0447200768103357e-06,-1.2689279174082913e-06,-4.931357580062468e-07,2.8265640139579773e-07,1.0584485607978422e-06,1.8342408338867244e-06,2.6100331069756066e-06,3.385825266377651e-06,4.161617653153371e-06,4.9374098125554156e-06,5.71320197195746e-06,6.4889941313595045e-06,7.264786290761549e-06,8.040578904910944e-06,8.816370609565638e-06,9.592163223715033e-06,1.0367955837864429e-05,1.1143747542519122e-05,1.1919539247173816e-05,1.2695331861323211e-05,1.3471124475472607e-05,1.42469161801273e-05,1.5022708794276696e-05,1.579850140842609e-05,1.6574293113080785e-05,1.7350084817735478e-05,1.8125876522390172e-05,1.890167004603427e-05,1.9677461750688963e-05,2.045325527433306e-05,2.1229046978987753e-05,2.2004838683642447e-05,2.278063038829714e-05,2.3556423911941238e-05,2.433221561659593e-05,2.5108007321250625e-05],"_type":"histogram"},"gradients/conv.12.bias":{"bins":[-4.423782229423523e-09,-4.296452971175313e-09,-4.169123712927103e-09,-4.041794454678893e-09,-3.914465196430683e-09,-3.787135938182473e-09,-3.6598066799342632e-09,-3.5324774216860533e-09,-3.4051481634378433e-09,-3.2778189051896334e-09,-3.1504896469414234e-09,-3.0231603886932135e-09,-2.8958311304450035e-09,-2.7685018721967936e-09,-2.6411726139485836e-09,-2.5138433557003736e-09,-2.3865140974521637e-09,-2.2591848392039537e-09,-2.1318555809557438e-09,-2.004526322707534e-09,-1.877197064459324e-09,-1.749867806211114e-09,-1.622538547962904e-09,-1.495209289714694e-09,-1.367880031466484e-09,-1.2405507732182741e-09,-1.1132215149700642e-09,-9.858922567218542e-10,-8.585629984736443e-10,-7.312337402254343e-10,-6.039044819772243e-10,-4.765752237290144e-10,-3.4924596548080444e-10,-2.219167072325945e-10,-9.458744898438454e-11,3.2741809263825417e-11,1.6007106751203537e-10,2.874003257602453e-10,4.147295840084553e-10,5.420588422566652e-10,6.693881005048752e-10,7.967173587530851e-10,9.240466170012951e-10,1.051375875249505e-09,1.178705133497715e-09,1.306034391745925e-09,1.433363649994135e-09,1.5606929082423449e-09,1.6880221664905548e-09,1.8153514247387648e-09,1.9426806829869747e-09,2.0700099412351847e-09,2.1973391994833946e-09,2.3246684577316046e-09,2.4519977159798145e-09,2.5793269742280245e-09,2.7066562324762344e-09,2.8339854907244444e-09,2.9613147489726543e-09,3.0886440072208643e-09,3.2159732654690742e-09,3.343302523717284e-09,3.470631781965494e-09,3.597961040213704e-09,3.725290298461914e-09],"_type":"histogram","values":[1,0,0,0,0,0,0,0,0,0,0,0,1,0,1,0,1,1,1,0,3,3,1,3,2,3,0,9,3,2,2,9,8,3,8,1,8,4,7,1,7,1,6,3,2,10,1,3,0,2,1,1,0,1,1,0,0,1,0,0,1,0,0,1]},"parameters/conv.13.weight":{"values":[1,0,0,2,2,1,3,1,5,2,3,4,1,1,3,4,5,3,4,4,2,5,3,2,6,6,3,7,0,4,1,2,3,1,1,2,1,2,0,2,6,0,1,1,4,1,1,1,1,3,3,0,0,1,0,0,1,0,0,0,0,0,1,1],"bins":[0.967536449432373,0.9684849381446838,0.9694334268569946,0.9703819155693054,0.9713304042816162,0.972278892993927,0.9732273817062378,0.9741758704185486,0.9751243591308594,0.9760728478431702,0.977021336555481,0.9779698252677917,0.9789183139801025,0.9798668026924133,0.9808152914047241,0.9817637801170349,0.9827122092247009,0.9836606979370117,0.9846091866493225,0.9855576753616333,0.9865061640739441,0.9874546527862549,0.9884031414985657,0.9893516302108765,0.9903000593185425,0.9912485480308533,0.9921970367431641,0.9931455254554749,0.9940940141677856,0.9950425028800964,0.9959909915924072,0.996939480304718,0.9978879690170288,0.9988364577293396,0.9997849464416504,1.0007333755493164,1.001681923866272,1.002630352973938,1.0035789012908936,1.0045273303985596,1.0054758787155151,1.0064243078231812,1.0073728561401367,1.0083212852478027,1.0092698335647583,1.0102182626724243,1.0111668109893799,1.012115240097046,1.013063669204712,1.014012098312378,1.0149606466293335,1.0159090757369995,1.016857624053955,1.017806053161621,1.0187546014785767,1.0197030305862427,1.0206515789031982,1.0216000080108643,1.0225485563278198,1.0234969854354858,1.0244455337524414,1.0253939628601074,1.026342511177063,1.027290940284729,1.0282394886016846],"_type":"histogram"},"parameters/conv.1.weight":{"values":[1,0,0,0,0,0,0,0,0,0,0,1,1,0,1,0,0,2,1,0,1,0,0,0,0,1,0,0,0,0,0,1,0,3,2,1,0,2,0,2,3,2,0,1,0,0,0,1,0,1,0,1,1,0,0,0,0,0,0,0,1,0,0,1],"bins":[0.9698150753974915,0.9705588221549988,0.9713025689125061,0.9720462560653687,0.972790002822876,0.9735337495803833,0.9742774963378906,0.9750211834907532,0.9757649302482605,0.9765086770057678,0.9772524237632751,0.9779961109161377,0.978739857673645,0.9794836044311523,0.9802273511886597,0.9809710383415222,0.9817147850990295,0.9824585318565369,0.9832022786140442,0.9839459657669067,0.9846897125244141,0.9854334592819214,0.9861772060394287,0.9869208931922913,0.9876646399497986,0.9884083867073059,0.9891521334648132,0.9898958206176758,0.9906395673751831,0.9913833141326904,0.9921270608901978,0.9928707480430603,0.9936145544052124,0.9943583011627197,0.995102047920227,0.9958457350730896,0.9965894818305969,0.9973332285881042,0.9980769753456116,0.9988206624984741,0.9995644092559814,1.0003081560134888,1.001051902770996,1.0017956495285034,1.0025393962860107,1.0032830238342285,1.0040267705917358,1.0047705173492432,1.0055142641067505,1.0062580108642578,1.0070017576217651,1.0077455043792725,1.0084892511367798,1.0092328786849976,1.0099766254425049,1.0107203722000122,1.0114641189575195,1.0122078657150269,1.0129516124725342,1.0136953592300415,1.0144391059875488,1.0151827335357666,1.015926480293274,1.0166702270507812,1.0174139738082886],"_type":"histogram"},"gradients/fc1.bias":{"values":[1,0,0,2,0,0,4,5,2,5,1,0,2,6,3,7,2,5,3,6,3,7,5,7,5,5,12,329,2,14,7,4,6,2,4,4,7,6,3,2,4,2,2,1,1,0,2,2,1,1,1,0,1,1,1,1,0,0,0,2,0,0,0,1],"bins":[-0.009250929579138756,-0.008917417377233505,-0.00858390610665083,-0.008250393904745579,-0.007916882634162903,-0.007583370432257652,-0.007249858230352402,-0.0069163464941084385,-0.006582834757864475,-0.006249323021620512,-0.005915811285376549,-0.005582299083471298,-0.005248787347227335,-0.004915275610983372,-0.004581763409078121,-0.004248251672834158,-0.003914739936590195,-0.0035812282003462315,-0.0032477162312716246,-0.0029142042621970177,-0.0025806925259530544,-0.002247180789709091,-0.0019136688206344843,-0.0015801568515598774,-0.0012466451153159142,-0.0009131332626566291,-0.000579621409997344,-0.00024610955733805895,8.740229532122612e-05,0.0004209141479805112,0.0007544260006397963,0.0010879379697144032,0.001421450637280941,0.001754962489940226,0.002088474342599511,0.002421986311674118,0.0027554980479180813,0.0030890097841620445,0.0034225217532366514,0.0037560337223112583,0.0040895454585552216,0.004423057194799185,0.004756568931043148,0.005090081132948399,0.005423592869192362,0.005757104605436325,0.006090616807341576,0.006424128543585539,0.006757640279829502,0.007091152016073465,0.007424663752317429,0.007758175954222679,0.00809168815612793,0.008425199426710606,0.008758711628615856,0.009092222899198532,0.009425735101103783,0.009759247303009033,0.01009275857359171,0.01042627077549696,0.010759782046079636,0.011093294247984886,0.011426806449890137,0.011760318651795387,0.012093829922378063],"_type":"histogram"},"total_training_time":146.9684579372406,"gradients/conv.5.weight":{"bins":[-0.061483968049287796,-0.060079801827669144,-0.05867563560605049,-0.05727146938443184,-0.055867306888103485,-0.05446314066648483,-0.05305897444486618,-0.05165480822324753,-0.050250642001628876,-0.04884647578001022,-0.04744230955839157,-0.04603814333677292,-0.044633977115154266,-0.04322981461882591,-0.04182564839720726,-0.04042148217558861,-0.039017315953969955,-0.0376131497323513,-0.03620898351073265,-0.034804817289114,-0.033400654792785645,-0.03199648857116699,-0.03059232234954834,-0.029188156127929688,-0.027783989906311035,-0.026379823684692383,-0.02497565746307373,-0.023571493104100227,-0.022167326882481575,-0.020763160660862923,-0.01935899630188942,-0.017954830080270767,-0.016550661996006966,-0.015146495774388313,-0.013742330484092236,-0.012338165193796158,-0.010933998972177505,-0.009529832750558853,-0.008125667460262775,-0.006721502169966698,-0.005317335948348045,-0.00391317019239068,-0.0025090044364333153,-0.0011048386804759502,0.0002993270754814148,0.0017034928314387798,0.003107658587396145,0.004511823877692223,0.005915990099310875,0.00732015585526824,0.008724321611225605,0.010128486901521683,0.011532653123140335,0.012936819344758987,0.014340984635055065,0.015745149925351143,0.017149316146969795,0.018553482368588448,0.01995764672756195,0.021361812949180603,0.022765979170799255,0.024170145392417908,0.02557431161403656,0.026978475973010063,0.028382642194628716],"_type":"histogram","values":[1,0,0,0,0,0,0,0,0,0,0,0,0,0,0,0,0,1,0,0,1,0,1,0,0,2,0,2,1,0,1,0,2,0,0,0,3,1,2,0,1,1,1,2,5,3,2,5,5,3,3,3,2,1,0,0,3,1,1,0,0,1,1,2]},"gradients/conv.0.bias":{"_type":"histogram","values":[1,0,0,0,0,0,0,0,1,1,0,0,0,0,0,0,0,0,1,0,1,0,2,0,0,0,1,0,3,2,2,0,0,2,1,1,5,2,1,0,0,0,1,1,1,0,0,0,0,0,0,0,0,0,0,0,0,0,1,0,0,0,0,1],"bins":[-2.3096799850463867e-07,-2.234010025858879e-07,-2.1583400666713715e-07,-2.0826701074838638e-07,-2.0070001482963562e-07,-1.9313301891088486e-07,-1.855660229921341e-07,-1.7799902707338333e-07,-1.7043203115463257e-07,-1.628650352358818e-07,-1.5529803931713104e-07,-1.4773104339838028e-07,-1.4016404747962952e-07,-1.3259705156087875e-07,-1.25030055642128e-07,-1.1746305972337723e-07,-1.0989606380462646e-07,-1.023290678858757e-07,-9.476207196712494e-08,-8.719507604837418e-08,-7.962808012962341e-08,-7.206108421087265e-08,-6.449408829212189e-08,-5.6927092373371124e-08,-4.936009645462036e-08,-4.17931005358696e-08,-3.4226104617118835e-08,-2.6659108698368073e-08,-1.909211277961731e-08,-1.1525116860866547e-08,-3.958120942115784e-09,3.6088749766349792e-09,1.1175870895385742e-08,1.8742866814136505e-08,2.6309862732887268e-08,3.387685865163803e-08,4.1443854570388794e-08,4.901085048913956e-08,5.657784640789032e-08,6.414484232664108e-08,7.171183824539185e-08,7.927883416414261e-08,8.684583008289337e-08,9.441282600164413e-08,1.019798219203949e-07,1.0954681783914566e-07,1.1711381375789642e-07,1.2468080967664719e-07,1.3224780559539795e-07,1.398148015141487e-07,1.4738179743289948e-07,1.5494879335165024e-07,1.62515789270401e-07,1.7008278518915176e-07,1.7764978110790253e-07,1.852167770266533e-07,1.9278377294540405e-07,2.0035076886415482e-07,2.0791776478290558e-07,2.1548476070165634e-07,2.230517566204071e-07,2.3061875253915787e-07,2.3818574845790863e-07,2.457527443766594e-07,2.5331974029541016e-07]},"epoch":10,"parameters/fc_out.bias":{"_type":"histogram","values":[1,0,0,0,0,0,0,0,0,0,0,0,0,0,0,0,0,0,1,0,0,1,0,0,0,0,0,0,1,0,0,0,0,1,1,0,0,0,0,0,0,0,0,0,0,0,0,0,0,0,0,0,0,1,0,0,0,1,0,1,0,0,0,1],"bins":[-0.04289634898304939,-0.04165027290582657,-0.040404196828603745,-0.03915812075138092,-0.037912044674158096,-0.03666596859693527,-0.03541989251971245,-0.034173816442489624,-0.0329277403652668,-0.031681664288043976,-0.03043558821082115,-0.029189512133598328,-0.027943436056375504,-0.02669735997915268,-0.025451283901929855,-0.02420520782470703,-0.022959131747484207,-0.021713055670261383,-0.02046697959303856,-0.019220903515815735,-0.01797482743859291,-0.016728751361370087,-0.015482675284147263,-0.014236599206924438,-0.012990523129701614,-0.01174444705247879,-0.010498370975255966,-0.009252294898033142,-0.008006218820810318,-0.006760142743587494,-0.00551406666636467,-0.004267990589141846,-0.0030219145119190216,-0.0017758384346961975,-0.0005297623574733734,0.0007163137197494507,0.0019623897969722748,0.003208465874195099,0.004454541951417923,0.005700618028640747,0.006946694105863571,0.008192770183086395,0.00943884626030922,0.010684922337532043,0.011930998414754868,0.013177074491977692,0.014423150569200516,0.01566922664642334,0.016915302723646164,0.018161378800868988,0.019407454878091812,0.020653530955314636,0.02189960703253746,0.023145683109760284,0.02439175918698311,0.025637835264205933,0.026883911341428757,0.02812998741865158,0.029376063495874405,0.03062213957309723,0.03186821565032005,0.03311429172754288,0.0343603678047657,0.035606443881988525,0.03685251995921135]},"gradients/conv.12.weight":{"_type":"histogram","values":[1,0,1,2,2,5,7,17,21,30,56,87,154,231,297,447,615,916,1330,1892,2761,3856,5210,7352,9955,13433,18162,24237,32042,41367,51970,61833,71173,75461,73053,66594,56820,46720,36578,28123,20716,14792,10727,7732,5321,3683,2457,1557,1076,688,455,298,191,108,82,46,31,15,14,6,6,0,2,2],"bins":[-0.026816122233867645,-0.026023222133517265,-0.025230322033166885,-0.024437423795461655,-0.023644523695111275,-0.022851623594760895,-0.022058723494410515,-0.021265823394060135,-0.020472923293709755,-0.019680023193359375,-0.018887123093008995,-0.018094222992658615,-0.017301324754953384,-0.016508424654603004,-0.015715524554252625,-0.014922624453902245,-0.01412972528487444,-0.01333682518452406,-0.012543926015496254,-0.011751025915145874,-0.010958125814795494,-0.010165225714445114,-0.009372326545417309,-0.008579426445066929,-0.007786526810377836,-0.006993627175688744,-0.006200727075338364,-0.005407827440649271,-0.004614927805960178,-0.0038220277056097984,-0.003029128070920706,-0.002236227970570326,-0.0014433283358812332,-0.0006504285265691578,0.00014247128274291754,0.000935371033847332,0.0017282709013670683,0.0025211707688868046,0.003314070403575897,0.004106970503926277,0.00489987013861537,0.005692769773304462,0.006485669873654842,0.007278569508343935,0.008071469143033028,0.008864369243383408,0.009657269343733788,0.010450169444084167,0.011243068613111973,0.012035968713462353,0.012828867882490158,0.013621767982840538,0.014414668083190918,0.015207568183541298,0.016000468283891678,0.01679336652159691,0.01758626662194729,0.01837916672229767,0.01917206682264805,0.01996496692299843,0.02075786516070366,0.02155076526105404,0.02234366536140442,0.0231365654617548,0.02392946556210518]},"gradients/conv.16.weight":{"bins":[-0.015813903883099556,-0.015285201370716095,-0.014756498858332634,-0.014227795414626598,-0.013699092902243137,-0.013170390389859676,-0.01264168694615364,-0.01211298443377018,-0.011584281921386719,-0.011055579409003258,-0.010526876896619797,-0.009998173452913761,-0.0094694709405303,-0.00894076842814684,-0.008412064984440804,-0.007883362472057343,-0.0073546599596738815,-0.0068259574472904205,-0.006297254469245672,-0.005768551491200924,-0.005239848978817463,-0.004711146466434002,-0.004182443488389254,-0.003653740743175149,-0.0031250379979610443,-0.0025963352527469397,-0.002067632507532835,-0.0015389297623187304,-0.0010102270171046257,-0.00048152427189052105,4.71784733235836e-05,0.0005758812185376883,0.0011045858263969421,0.0016332885716110468,0.0021619913168251514,0.002690694062039256,0.0032193968072533607,0.0037480995524674654,0.00427680229768157,0.004805505275726318,0.005334207788109779,0.00586291030049324,0.006391613278537989,0.006920316256582737,0.007449018768966198,0.007977721281349659,0.008506424725055695,0.009035127237439156,0.009563829749822617,0.010092532262206078,0.010621234774589539,0.011149938218295574,0.011678640730679035,0.012207343243062496,0.012736046686768532,0.013264749199151993,0.013793451711535454,0.014322154223918915,0.014850856736302376,0.015379560180008411,0.015908263623714447,0.016436966136097908,0.01696566864848137,0.01749437116086483,0.01802307367324829],"_type":"histogram","values":[2,0,3,7,11,24,43,78,115,153,254,432,693,1114,1734,2492,3908,5901,8508,12518,18137,25394,35802,48718,64549,82597,103332,120378,136395,144015,142417,133244,117908,98707,79603,61001,46199,33469,24168,16991,11655,7904,5252,3453,2257,1505,976,581,375,245,175,116,50,26,17,10,7,7,2,2,1,0,1,1]},"gradients/conv.13.weight":{"bins":[-0.02142380177974701,-0.020749077200889587,-0.020074352622032166,-0.019399628043174744,-0.018724903464317322,-0.0180501788854599,-0.017375454306602478,-0.016700729727745056,-0.016026005148887634,-0.015351280570030212,-0.01467655599117279,-0.014001831412315369,-0.013327106833457947,-0.012652382254600525,-0.011977656744420528,-0.011302932165563107,-0.01062820665538311,-0.009953482076525688,-0.009278757497668266,-0.008604032918810844,-0.007929308339953423,-0.007254583295434713,-0.006579858250916004,-0.005905133672058582,-0.00523040909320116,-0.0045556845143437386,-0.003880959702655673,-0.0032062348909676075,-0.0025315103121101856,-0.0018567857332527637,-0.0011820606887340546,-0.0005073361098766327,0.00016739033162593842,0.0008421150268986821,0.0015168397221714258,0.0021915645338594913,0.0028662891127169132,0.003541013691574335,0.004215738736093044,0.004890463314950466,0.005565187893807888,0.00623991247266531,0.006914637051522732,0.007589362096041441,0.00826408714056015,0.008938811719417572,0.009613536298274994,0.010288260877132416,0.010962985455989838,0.01163771003484726,0.012312434613704681,0.012987159192562103,0.013661883771419525,0.014336608350276947,0.015011333860456944,0.01568605750799179,0.016360782086849213,0.017035506665706635,0.017710231244564056,0.01838495582342148,0.0190596804022789,0.019734404981136322,0.020409129559993744,0.021083854138851166,0.021758580580353737],"_type":"histogram","values":[1,1,1,0,3,1,1,1,1,0,1,1,0,1,0,1,1,3,4,2,2,2,4,4,4,3,4,3,3,2,3,2,3,4,3,7,7,6,2,5,2,2,1,2,3,3,2,0,1,1,3,3,0,1,0,2,0,0,2,1,0,1,0,1]},"parameters/fc1.bias":{"values":[1,2,3,0,6,7,5,7,4,8,5,5,8,11,13,11,6,5,9,12,8,12,12,12,12,16,11,8,8,10,11,14,20,7,9,14,8,10,7,10,12,6,9,9,9,6,11,15,6,8,9,8,11,9,4,8,5,5,4,4,3,1,1,2],"bins":[-0.01665795035660267,-0.016137102618813515,-0.01561625488102436,-0.015095406211912632,-0.014574558474123478,-0.014053710736334324,-0.013532862067222595,-0.013012014329433441,-0.012491166591644287,-0.011970318853855133,-0.011449471116065979,-0.01092862244695425,-0.010407774709165096,-0.009886926971375942,-0.009366078302264214,-0.00884523056447506,-0.008324382826685905,-0.007803535088896751,-0.00728268688544631,-0.006761838681995869,-0.006240990944206715,-0.005720143206417561,-0.005199295002967119,-0.004678446799516678,-0.004157599061727524,-0.003636751091107726,-0.0031159031204879284,-0.0025950551498681307,-0.002074207179248333,-0.0015533592086285353,-0.0010325112380087376,-0.0005116632673889399,9.18656587600708e-06,0.0005300345364958048,0.0010508825071156025,0.0015717304777354002,0.002092578448355198,0.0026134264189749956,0.0031342743895947933,0.003655122360214591,0.004175970330834389,0.004696818068623543,0.005217666272073984,0.0057385144755244255,0.0062593622133135796,0.006780209951102734,0.007301058154553175,0.007821906358003616,0.00834275409579277,0.008863601833581924,0.009384449571371078,0.009905298240482807,0.010426145978271961,0.010946993716061115,0.011467842385172844,0.011988690122961998,0.012509537860751152,0.013030385598540306,0.01355123333632946,0.014072082005441189,0.014592929743230343,0.015113777481019497,0.015634626150131226,0.01615547388792038,0.016676321625709534],"_type":"histogram"},"parameters/conv.5.weight":{"values":[1,0,0,0,0,1,0,0,0,0,0,0,0,2,1,0,0,1,0,2,2,1,0,1,1,2,6,1,5,5,3,2,0,1,2,2,2,0,2,0,1,2,0,1,2,2,1,0,0,2,1,0,0,0,1,1,2,0,0,0,0,0,1,1],"bins":[0.9693801403045654,0.9701641798019409,0.9709482192993164,0.9717322587966919,0.9725162982940674,0.9733003377914429,0.9740843772888184,0.9748684167861938,0.9756524562835693,0.9764364957809448,0.9772205352783203,0.9780045747756958,0.9787886142730713,0.9795726537704468,0.9803566932678223,0.9811407327651978,0.981924831867218,0.9827088713645935,0.983492910861969,0.9842769503593445,0.98506098985672,0.9858450293540955,0.986629068851471,0.9874131083488464,0.9881972074508667,0.9889812469482422,0.9897652864456177,0.9905493259429932,0.9913333654403687,0.9921174049377441,0.9929014444351196,0.9936854839324951,0.9944695234298706,0.9952535629272461,0.9960376024246216,0.9968216419219971,0.9976056814193726,0.998389720916748,0.9991737604141235,0.999957799911499,1.0007418394088745,1.00152587890625,1.0023099184036255,1.003093957901001,1.0038779973983765,1.004662036895752,1.0054460763931274,1.006230115890503,1.007014274597168,1.0077983140945435,1.008582353591919,1.0093663930892944,1.01015043258667,1.0109344720840454,1.011718511581421,1.0125025510787964,1.0132865905761719,1.0140706300735474,1.0148546695709229,1.0156387090682983,1.0164227485656738,1.0172067880630493,1.0179908275604248,1.0187748670578003,1.0195589065551758],"_type":"histogram"},"gradients/conv.4.bias":{"bins":[-1.862645149230957e-08,-1.798616722226143e-08,-1.7345882952213287e-08,-1.6705598682165146e-08,-1.6065314412117004e-08,-1.5425030142068863e-08,-1.4784745872020721e-08,-1.414446160197258e-08,-1.3504177331924438e-08,-1.2863893061876297e-08,-1.2223608791828156e-08,-1.1583324521780014e-08,-1.0943040251731873e-08,-1.0302755981683731e-08,-9.66247171163559e-09,-9.022187441587448e-09,-8.381903171539307e-09,-7.741618901491165e-09,-7.101334631443024e-09,-6.461050361394882e-09,-5.820766091346741e-09,-5.180481821298599e-09,-4.540197551250458e-09,-3.899913281202316e-09,-3.259629011154175e-09,-2.6193447411060333e-09,-1.979060471057892e-09,-1.3387762010097504e-09,-6.984919309616089e-10,-5.820766091346741e-11,5.820766091346741e-10,1.2223608791828156e-09,1.862645149230957e-09,2.5029294192790985e-09,3.14321368932724e-09,3.7834979593753815e-09,4.423782229423523e-09,5.0640664994716644e-09,5.704350769519806e-09,6.344635039567947e-09,6.984919309616089e-09,7.62520357966423e-09,8.265487849712372e-09,8.905772119760513e-09,9.546056389808655e-09,1.0186340659856796e-08,1.0826624929904938e-08,1.146690919995308e-08,1.210719347000122e-08,1.2747477740049362e-08,1.3387762010097504e-08,1.4028046280145645e-08,1.4668330550193787e-08,1.5308614820241928e-08,1.594889909029007e-08,1.658918336033821e-08,1.7229467630386353e-08,1.7869751900434494e-08,1.8510036170482635e-08,1.9150320440530777e-08,1.979060471057892e-08,2.043088898062706e-08,2.10711732506752e-08,2.1711457520723343e-08,2.2351741790771484e-08],"_type":"histogram","values":[2,0,1,0,0,1,0,1,1,0,0,0,0,1,1,1,0,5,0,0,1,2,0,4,0,1,6,2,0,8,1,0,3,0,3,0,2,4,0,0,4,0,0,1,3,0,1,0,0,1,0,0,0,0,0,2,0,0,0,0,0,0,0,1]},"gradients/conv.13.bias":{"_type":"histogram","values":[1,0,1,0,0,1,2,1,2,3,2,2,0,0,3,1,2,2,3,2,4,4,6,1,7,4,4,2,0,6,3,4,3,6,5,2,4,1,6,1,3,2,1,0,2,3,3,2,1,1,0,0,1,2,1,2,0,1,1,0,0,0,0,1],"bins":[-0.01369777973741293,-0.01319711934775114,-0.012696458958089352,-0.012195798568427563,-0.011695138178765774,-0.011194477789103985,-0.010693817399442196,-0.010193157009780407,-0.009692496620118618,-0.009191836230456829,-0.00869117584079504,-0.008190515451133251,-0.007689855061471462,-0.007189194671809673,-0.006688534282147884,-0.006187873892486095,-0.0056872135028243065,-0.0051865531131625175,-0.004685892723500729,-0.00418523233383894,-0.0036845719441771507,-0.003183911554515362,-0.002683251164853573,-0.002182590775191784,-0.001681930385529995,-0.001181269995868206,-0.0006806096062064171,-0.00017994921654462814,0.0003207111731171608,0.0008213715627789497,0.0013220319524407387,0.0018226923421025276,0.002323351800441742,0.002824012190103531,0.00332467257976532,0.0038253329694271088,0.004325993359088898,0.004826653748750687,0.005327314138412476,0.0058279745280742645,0.0063286349177360535,0.006829295307397842,0.007329955697059631,0.00783061608672142,0.00833127647638321,0.008831936866044998,0.009332597255706787,0.009833257645368576,0.010333918035030365,0.010834578424692154,0.011335238814353943,0.011835899204015732,0.01233655959367752,0.01283721998333931,0.013337880373001099,0.013838540762662888,0.014339201152324677,0.014839861541986465,0.015340521931648254,0.015841182321310043,0.016341842710971832,0.01684250310063362,0.01734316349029541,0.0178438238799572,0.018344484269618988]},"_runtime":159.079537789,"_step":12}